{
  "children_left": [
    1,
    2,
    3,
    4,
    5,
    -1,
    -1,
    8,
    -1,
    -1,
    11,
    12,
    -1,
    -1,
    15,
    -1,
    17,
    -1,
    -1,
    20,
    21,
    22,
    23,
    24,
    -1,
    -1,
    -1,
    28,
    29,
    30,
    -1,
    -1,
    33,
    -1,
    35,
    -1,
    -1,
    -1,
    39,
    40,
    -1,
    -1,
    -1,
    44,
    45,
    46,
    47,
    -1,
    49,
    50,
    -1,
    -1,
    53,
    -1,
    -1,
    56,
    57,
    58,
    -1,
    -1,
    -1,
    62,
    -1,
    64,
    -1,
    -1,
    67,
    68,
    69,
    70,
    -1,
    -1,
    73,
    -1,
    -1,
    76,
    77,
    -1,
    -1,
    -1,
    81,
    -1,
    -1,
    84,
    85,
    86,
    87,
    -1,
    -1,
    -1,
    91,
    92,
    -1,
    -1,
    95,
    -1,
    97,
    -1,
    -1,
    100,
    101,
    102,
    -1,
    -1,
    105,
    106,
    -1,
    -1,
    -1,
    -1,
    111,
    112,
    113,
    114,
    -1,
    116,
    117,
    118,
    -1,
    -1,
    -1,
    122,
    -1,
    -1,
    125,
    126,
    -1,
    -1,
    129,
    130,
    131,
    -1,
    -1,
    134,
    -1,
    136,
    -1,
    -1,
    139,
    140,
    141,
    -1,
    -1,
    144,
    -1,
    -1,
    147,
    -1,
    -1,
    150,
    151,
    152,
    153,
    154,
    -1,
    156,
    -1,
    -1,
    159,
    160,
    -1,
    -1,
    -1,
    164,
    165,
    166,
    -1,
    -1,
    169,
    -1,
    -1,
    172,
    -1,
    -1,
    175,
    176,
    177,
    -1,
    179,
    -1,
    -1,
    182,
    183,
    -1,
    -1,
    -1,
    187,
    188,
    -1,
    -1,
    -1,
    192,
    193,
    194,
    195,
    -1,
    -1,
    198,
    -1,
    200,
    -1,
    -1,
    203,
    -1,
    -1,
    206,
    207,
    208,
    -1,
    -1,
    -1,
    -1,
    213,
    214,
    215,
    -1,
    -1,
    218,
    -1,
    220,
    -1,
    -1,
    -1
  ],
  "children_right": [
    110,
    19,
    10,
    7,
    6,
    -1,
    -1,
    9,
    -1,
    -1,
    14,
    13,
    -1,
    -1,
    16,
    -1,
    18,
    -1,
    -1,
    43,
    38,
    27,
    26,
    25,
    -1,
    -1,
    -1,
    37,
    32,
    31,
    -1,
    -1,
    34,
    -1,
    36,
    -1,
    -1,
    -1,
    42,
    41,
    -1,
    -1,
    -1,
    83,
    66,
    55,
    48,
    -1,
    52,
    51,
    -1,
    -1,
    54,
    -1,
    -1,
    61,
    60,
    59,
    -1,
    -1,
    -1,
    63,
    -1,
    65,
    -1,
    -1,
    80,
    75,
    72,
    71,
    -1,
    -1,
    74,
    -1,
    -1,
    79,
    78,
    -1,
    -1,
    -1,
    82,
    -1,
    -1,
    99,
    90,
    89,
    88,
    -1,
    -1,
    -1,
    94,
    93,
    -1,
    -1,
    96,
    -1,
    98,
    -1,
    -1,
    109,
    104,
    103,
    -1,
    -1,
    108,
    107,
    -1,
    -1,
    -1,
    -1,
    212,
    149,
    124,
    115,
    -1,
    121,
    120,
    119,
    -1,
    -1,
    -1,
    123,
    -1,
    -1,
    128,
    127,
    -1,
    -1,
    138,
    133,
    132,
    -1,
    -1,
    135,
    -1,
    137,
    -1,
    -1,
    146,
    143,
    142,
    -1,
    -1,
    145,
    -1,
    -1,
    148,
    -1,
    -1,
    191,
    174,
    163,
    158,
    155,
    -1,
    157,
    -1,
    -1,
    162,
    161,
    -1,
    -1,
    -1,
    171,
    168,
    167,
    -1,
    -1,
    170,
    -1,
    -1,
    173,
    -1,
    -1,
    186,
    181,
    178,
    -1,
    180,
    -1,
    -1,
    185,
    184,
    -1,
    -1,
    -1,
    190,
    189,
    -1,
    -1,
    -1,
    205,
    202,
    197,
    196,
    -1,
    -1,
    199,
    -1,
    201,
    -1,
    -1,
    204,
    -1,
    -1,
    211,
    210,
    209,
    -1,
    -1,
    -1,
    -1,
    222,
    217,
    216,
    -1,
    -1,
    219,
    -1,
    221,
    -1,
    -1,
    -1
  ],
  "classes": [
    0,
    2
  ],
  "feature": [
    4,
    5,
    4,
    5,
    2,
    -2,
    -2,
    1,
    -2,
    -2,
    4,
    4,
    -2,
    -2,
    5,
    -2,
    3,
    -2,
    -2,
    5,
    4,
    0,
    3,
    1,
    -2,
    -2,
    -2,
    3,
    5,
    5,
    -2,
    -2,
    3,
    -2,
    2,
    -2,
    -2,
    -2,
    3,
    5,
    -2,
    -2,
    -2,
    4,
    4,
    5,
    0,
    -2,
    0,
    3,
    -2,
    -2,
    1,
    -2,
    -2,
    5,
    0,
    4,
    -2,
    -2,
    -2,
    4,
    -2,
    3,
    -2,
    -2,
    3,
    1,
    3,
    0,
    -2,
    -2,
    5,
    -2,
    -2,
    5,
    3,
    -2,
    -2,
    -2,
    5,
    -2,
    -2,
    3,
    2,
    1,
    5,
    -2,
    -2,
    -2,
    4,
    5,
    -2,
    -2,
    5,
    -2,
    0,
    -2,
    -2,
    5,
    2,
    5,
    -2,
    -2,
    5,
    0,
    -2,
    -2,
    -2,
    -2,
    5,
    4,
    5,
    5,
    -2,
    1,
    2,
    1,
    -2,
    -2,
    -2,
    2,
    -2,
    -2,
    3,
    0,
    -2,
    -2,
    5,
    3,
    5,
    -2,
    -2,
    0,
    -2,
    4,
    -2,
    -2,
    3,
    5,
    4,
    -2,
    -2,
    1,
    -2,
    -2,
    2,
    -2,
    -2,
    5,
    4,
    3,
    5,
    5,
    -2,
    0,
    -2,
    -2,
    4,
    5,
    -2,
    -2,
    -2,
    5,
    1,
    4,
    -2,
    -2,
    3,
    -2,
    -2,
    3,
    -2,
    -2,
    5,
    4,
    5,
    -2,
    0,
    -2,
    -2,
    0,
    5,
    -2,
    -2,
    -2,
    3,
    4,
    -2,
    -2,
    -2,
    1,
    2,
    0,
    5,
    -2,
    -2,
    5,
    -2,
    5,
    -2,
    -2,
    4,
    -2,
    -2,
    4,
    5,
    2,
    -2,
    -2,
    -2,
    -2,
    4,
    5,
    4,
    -2,
    -2,
    3,
    -2,
    1,
    -2,
    -2,
    -2
  ],
  "feature_names": [
    "cos_theta1",
    "sin_theta1",
    "cos_theta2",
    "sin_theta2",
    "theta_dot1",
    "theta_dot2"
  ],
  "metadata": {
    "max_depth": 9,
    "min_samples_leaf": 5,
    "node_count": 223,
    "ppo_train_seconds": 125.49556517601013,
    "teacher_algorithm": "PPO",
    "teacher_seed": 0,
    "teacher_train_steps": 100000,
    "teacher_validation": {
      "max": -62.0,
      "mean": -82.43,
      "median": -77.5,
      "min": -202.0,
      "std": 19.537786466229996
    },
    "training_accuracy": 0.991851808429568,
    "training_action_counts": [
      9676,
      0,
      7383
    ],
    "training_samples": 17059,
    "training_seeds": [
      0,
      199
    ],
    "tree_validation": {
      "max": -62.0,
      "mean": -81.26,
      "median": -76.0,
      "min": -178.0,
      "std": 15.601038426976585
    },
    "validation_seeds": [
      200,
      299
    ],
    "wall_clock_seconds": 137.8825969696045
  },
  "policy_type": "acrobot_distilled_decision_tree",
  "threshold": [
    -0.08526816219091415,
    -2.045496702194214,
    -3.6464375257492065,
    -4.1180031299591064,
    -0.5312483310699463,
    -2.0,
    -2.0,
    -0.7563219666481018,
    -2.0,
    -2.0,
    -3.2836321592330933,
    -3.331908941268921,
    -2.0,
    -2.0,
    -2.1879199743270874,
    -2.0,
    -0.6925699710845947,
    -2.0,
    -2.0,
    -1.0075229406356812,
    -1.493796944618225,
    -0.16344084590673447,
    0.0707622617483139,
    0.6409729719161987,
    -2.0,
    -2.0,
    -2.0,
    0.8634987473487854,
    -1.916610300540924,
    -1.9481265544891357,
    -2.0,
    -2.0,
    0.36762674152851105,
    -2.0,
    -0.7735261917114258,
    -2.0,
    -2.0,
    -2.0,
    -0.9350598752498627,
    -1.147624671459198,
    -2.0,
    -2.0,
    -2.0,
    -0.1956126093864441,
    -0.6924993395805359,
    -0.5889024138450623,
    -0.7982372641563416,
    -2.0,
    0.0032478985376656055,
    -0.1248810812830925,
    -2.0,
    -2.0,
    -0.7859933078289032,
    -2.0,
    -2.0,
    -0.012385409325361252,
    -0.3371417075395584,
    -1.5554959774017334,
    -2.0,
    -2.0,
    -2.0,
    -0.7722438871860504,
    -2.0,
    0.91887167096138,
    -2.0,
    -2.0,
    0.9353142380714417,
    0.9896962344646454,
    0.6298524141311646,
    -0.862133115530014,
    -2.0,
    -2.0,
    0.8978352844715118,
    -2.0,
    -2.0,
    -0.8287905156612396,
    -0.6743194162845612,
    -2.0,
    -2.0,
    -2.0,
    1.7923809885978699,
    -2.0,
    -2.0,
    0.4355323910713196,
    0.9002041816711426,
    0.9056980609893799,
    -0.9893062710762024,
    -2.0,
    -2.0,
    -2.0,
    -0.10328830406069756,
    -0.428140789270401,
    -2.0,
    -2.0,
    -0.03903104364871979,
    -2.0,
    0.9987606704235077,
    -2.0,
    -2.0,
    2.2494735717773438,
    0.7063038647174835,
    1.7317528128623962,
    -2.0,
    -2.0,
    0.9365089237689972,
    0.9486808776855469,
    -2.0,
    -2.0,
    -2.0,
    -2.0,
    2.904673218727112,
    0.029204651713371277,
    -0.37829847633838654,
    -0.8717352449893951,
    -2.0,
    0.16213834285736084,
    0.8835204243659973,
    0.097464170306921,
    -2.0,
    -2.0,
    -2.0,
    0.5223802626132965,
    -2.0,
    -2.0,
    -0.3073860853910446,
    0.9962819814682007,
    -2.0,
    -2.0,
    0.023234385065734386,
    -0.08853308111429214,
    -0.08124594017863274,
    -2.0,
    -2.0,
    0.9955689907073975,
    -2.0,
    -0.07570832222700119,
    -2.0,
    -2.0,
    0.7001024186611176,
    1.1360517144203186,
    -0.037173736840486526,
    -2.0,
    -2.0,
    -0.9548805058002472,
    -2.0,
    -2.0,
    -0.3544297367334366,
    -2.0,
    -2.0,
    1.7772048115730286,
    0.18052561581134796,
    -0.41976298391819,
    -0.33933693170547485,
    -0.8231008350849152,
    -2.0,
    0.9799062609672546,
    -2.0,
    -2.0,
    0.1667446494102478,
    -0.3075758218765259,
    -2.0,
    -2.0,
    -2.0,
    1.189719796180725,
    0.17732133716344833,
    0.045589206740260124,
    -2.0,
    -2.0,
    -0.05342528969049454,
    -2.0,
    -2.0,
    0.9964950382709503,
    -2.0,
    -2.0,
    1.4274667501449585,
    0.21409733593463898,
    -0.2411724179983139,
    -2.0,
    0.9703453779220581,
    -2.0,
    -2.0,
    -0.5944292545318604,
    0.2742528021335602,
    -2.0,
    -2.0,
    -2.0,
    -0.4564324915409088,
    1.8469218611717224,
    -2.0,
    -2.0,
    -2.0,
    -0.652822881937027,
    0.5253822207450867,
    -0.6696023643016815,
    2.626062750816345,
    -2.0,
    -2.0,
    2.7614063024520874,
    -2.0,
    2.785390019416809,
    -2.0,
    -2.0,
    0.5996706187725067,
    -2.0,
    -2.0,
    2.3719069957733154,
    2.0385392904281616,
    -0.9558237195014954,
    -2.0,
    -2.0,
    -2.0,
    -2.0,
    2.4553704261779785,
    3.000343680381775,
    0.48722733557224274,
    -2.0,
    -2.0,
    0.9601135551929474,
    -2.0,
    -0.8421319127082825,
    -2.0,
    -2.0,
    -2.0
  ],
  "value": [
    [
      0.5672079254352541,
      0.4327920745647459
    ],
    [
      0.12783914608415042,
      0.8721608539158495
    ],
    [
      0.9714285714285714,
      0.02857142857142857
    ],
    [
      0.7575757575757576,
      0.24242424242424243
    ],
    [
      0.9791666666666666,
      0.020833333333333332
    ],
    [
      1.0,
      0.0
    ],
    [
      0.8,
      0.2
    ],
    [
      0.16666666666666666,
      0.8333333333333334
    ],
    [
      0.6,
      0.4
    ],
    [
      0.0,
      1.0
    ],
    [
      0.9936908517350158,
      0.006309148264984227
    ],
    [
      0.9090909090909091,
      0.09090909090909091
    ],
    [
      1.0,
      0.0
    ],
    [
      0.6,
      0.4
    ],
    [
      0.9967320261437909,
      0.0032679738562091504
    ],
    [
      1.0,
      0.0
    ],
    [
      0.9310344827586207,
      0.06896551724137931
    ],
    [
      0.6,
      0.4
    ],
    [
      1.0,
      0.0
    ],
    [
      0.047573739295908656,
      0.9524262607040913
    ],
    [
      0.4267515923566879,
      0.5732484076433121
    ],
    [
      0.15306122448979592,
      0.8469387755102041
    ],
    [
      0.5882352941176471,
      0.4117647058823529
    ],
    [
      0.3333333333333333,
      0.6666666666666666
    ],
    [
      0.7777777777777778,
      0.2222222222222222
    ],
    [
      0.0,
      1.0
    ],
    [
      1.0,
      0.0
    ],
    [
      0.06172839506172839,
      0.9382716049382716
    ],
    [
      0.032467532467532464,
      0.9675324675324676
    ],
    [
      0.2727272727272727,
      0.7272727272727273
    ],
    [
      0.0,
      1.0
    ],
    [
      0.6,
      0.4
    ],
    [
      0.013986013986013986,
      0.986013986013986
    ],
    [
      0.0,
      1.0
    ],
    [
      0.10526315789473684,
      0.8947368421052632
    ],
    [
      0.3333333333333333,
      0.6666666666666666
    ],
    [
      0.0,
      1.0
    ],
    [
      0.625,
      0.375
    ],
    [
      0.8813559322033898,
      0.11864406779661017
    ],
    [
      0.44,
      0.56
    ],
    [
      1.0,
      0.0
    ],
    [
      0.0,
      1.0
    ],
    [
      1.0,
      0.0
    ],
    [
      0.030668749112594065,
      0.9693312508874059
    ],
    [
      0.019570051890289104,
      0.9804299481097108
    ],
    [
      0.0027573529411764708,
      0.9972426470588235
    ],
    [
      0.10101010101010101,
      0.898989898989899
    ],
    [
      0.7142857142857143,
      0.2857142857142857
    ],
    [
      0.05434782608695652,
      0.9456521739130435
    ],
    [
      0.26666666666666666,
      0.7333333333333333
    ],
    [
      0.0,
      1.0
    ],
    [
      0.5714285714285714,
      0.42857142857142855
    ],
    [
      0.012987012987012988,
      0.987012987012987
    ],
    [
      0.2,
      0.8
    ],
    [
      0.0,
      1.0
    ],
    [
      0.0009361542782250515,
      0.999063845721775
    ],
    [
      0.018867924528301886,
      0.9811320754716981
    ],
    [
      0.15,
      0.85
    ],
    [
      0.0,
      1.0
    ],
    [
      0.6,
      0.4
    ],
    [
      0.0,
      1.0
    ],
    [
      0.00038595137012736397,
      0.9996140486298727
    ],
    [
      0.0,
      1.0
    ],
    [
      0.010416666666666666,
      0.9895833333333334
    ],
    [
      0.0,
      1.0
    ],
    [
      0.11764705882352941,
      0.8823529411764706
    ],
    [
      0.0896551724137931,
      0.9103448275862069
    ],
    [
      0.03890728476821192,
      0.9610927152317881
    ],
    [
      0.030201342281879196,
      0.9697986577181208
    ],
    [
      0.002207505518763797,
      0.9977924944812362
    ],
    [
      0.07407407407407407,
      0.9259259259259259
    ],
    [
      0.0,
      1.0
    ],
    [
      0.11888111888111888,
      0.8811188811188811
    ],
    [
      1.0,
      0.0
    ],
    [
      0.0967741935483871,
      0.9032258064516129
    ],
    [
      0.6875,
      0.3125
    ],
    [
      0.9,
      0.1
    ],
    [
      0.8,
      0.2
    ],
    [
      1.0,
      0.0
    ],
    [
      0.3333333333333333,
      0.6666666666666666
    ],
    [
      0.7216494845360825,
      0.27835051546391754
    ],
    [
      1.0,
      0.0
    ],
    [
      0.0,
      1.0
    ],
    [
      0.28187919463087246,
      0.7181208053691275
    ],
    [
      0.08695652173913043,
      0.9130434782608695
    ],
    [
      0.029411764705882353,
      0.9705882352941176
    ],
    [
      0.007633587786259542,
      0.9923664122137404
    ],
    [
      0.2,
      0.8
    ],
    [
      0.0,
      1.0
    ],
    [
      0.6,
      0.4
    ],
    [
      0.25,
      0.75
    ],
    [
      0.06666666666666667,
      0.9333333333333333
    ],
    [
      0.4,
      0.6
    ],
    [
      0.0,
      1.0
    ],
    [
      0.5555555555555556,
      0.4444444444444444
    ],
    [
      1.0,
      0.0
    ],
    [
      0.2,
      0.8
    ],
    [
      0.4,
      0.6
    ],
    [
      0.0,
      1.0
    ],
    [
      0.5964912280701754,
      0.40350877192982454
    ],
    [
      0.7391304347826086,
      0.2608695652173913
    ],
    [
      0.9791666666666666,
      0.020833333333333332
    ],
    [
      1.0,
      0.0
    ],
    [
      0.8,
      0.2
    ],
    [
      0.4772727272727273,
      0.5227272727272727
    ],
    [
      0.9545454545454546,
      0.045454545454545456
    ],
    [
      0.8,
      0.2
    ],
    [
      1.0,
      0.0
    ],
    [
      0.0,
      1.0
    ],
    [
      0.0,
      1.0
    ],
    [
      0.9604532326149744,
      0.03954676738502555
    ],
    [
      0.9688061041292639,
      0.031193895870736087
    ],
    [
      0.7191650853889943,
      0.2808349146110057
    ],
    [
      0.9381443298969072,
      0.061855670103092786
    ],
    [
      1.0,
      0.0
    ],
    [
      0.8695652173913043,
      0.13043478260869565
    ],
    [
      0.9753086419753086,
      0.024691358024691357
    ],
    [
      0.8,
      0.2
    ],
    [
      1.0,
      0.0
    ],
    [
      0.6,
      0.4
    ],
    [
      1.0,
      0.0
    ],
    [
      0.09090909090909091,
      0.9090909090909091
    ],
    [
      0.0,
      1.0
    ],
    [
      0.2,
      0.8
    ],
    [
      0.5915915915915916,
      0.4084084084084084
    ],
    [
      0.0136986301369863,
      0.9863013698630136
    ],
    [
      0.0,
      1.0
    ],
    [
      0.2,
      0.8
    ],
    [
      0.7538461538461538,
      0.24615384615384617
    ],
    [
      0.9484536082474226,
      0.05154639175257732
    ],
    [
      0.7692307692307693,
      0.23076923076923078
    ],
    [
      1.0,
      0.0
    ],
    [
      0.4,
      0.6
    ],
    [
      0.9761904761904762,
      0.023809523809523808
    ],
    [
      0.8,
      0.2
    ],
    [
      0.9873417721518988,
      0.012658227848101266
    ],
    [
      0.9090909090909091,
      0.09090909090909091
    ],
    [
      1.0,
      0.0
    ],
    [
      0.6380368098159509,
      0.3619631901840491
    ],
    [
      0.5126050420168067,
      0.48739495798319327
    ],
    [
      0.6111111111111112,
      0.3888888888888889
    ],
    [
      0.36585365853658536,
      0.6341463414634146
    ],
    [
      0.8163265306122449,
      0.1836734693877551
    ],
    [
      0.20689655172413793,
      0.7931034482758621
    ],
    [
      0.5454545454545454,
      0.45454545454545453
    ],
    [
      0.0,
      1.0
    ],
    [
      0.9772727272727273,
      0.022727272727272728
    ],
    [
      0.8,
      0.2
    ],
    [
      1.0,
      0.0
    ],
    [
      0.9844961240310077,
      0.015503875968992248
    ],
    [
      0.9913835548990645,
      0.0086164451009355
    ],
    [
      0.9112781954887218,
      0.0887218045112782
    ],
    [
      0.7017543859649122,
      0.2982456140350877
    ],
    [
      0.9,
      0.1
    ],
    [
      1.0,
      0.0
    ],
    [
      0.7346938775510204,
      0.2653061224489796
    ],
    [
      0.2,
      0.8
    ],
    [
      0.9705882352941176,
      0.029411764705882353
    ],
    [
      0.07317073170731707,
      0.926829268292683
    ],
    [
      0.027777777777777776,
      0.9722222222222222
    ],
    [
      0.2,
      0.8
    ],
    [
      0.0,
      1.0
    ],
    [
      0.4,
      0.6
    ],
    [
      0.9838056680161943,
      0.016194331983805668
    ],
    [
      0.987603305785124,
      0.012396694214876033
    ],
    [
      0.9914893617021276,
      0.00851063829787234
    ],
    [
      0.9482758620689655,
      0.05172413793103448
    ],
    [
      0.9975728155339806,
      0.0024271844660194173
    ],
    [
      0.8571428571428571,
      0.14285714285714285
    ],
    [
      0.6,
      0.4
    ],
    [
      1.0,
      0.0
    ],
    [
      0.8,
      0.2
    ],
    [
      0.6,
      0.4
    ],
    [
      1.0,
      0.0
    ],
    [
      0.9985252714841132,
      0.001474728515886848
    ],
    [
      0.9990500746369928,
      0.0009499253630071922
    ],
    [
      0.9741379310344828,
      0.02586206896551724
    ],
    [
      1.0,
      0.0
    ],
    [
      0.8636363636363636,
      0.13636363636363635
    ],
    [
      1.0,
      0.0
    ],
    [
      0.4,
      0.6
    ],
    [
      0.9994485040672825,
      0.0005514959327174962
    ],
    [
      0.9920159680638723,
      0.007984031936127744
    ],
    [
      1.0,
      0.0
    ],
    [
      0.9215686274509803,
      0.0784313725490196
    ],
    [
      1.0,
      0.0
    ],
    [
      0.9555555555555556,
      0.044444444444444446
    ],
    [
      0.6,
      0.4
    ],
    [
      0.2,
      0.8
    ],
    [
      1.0,
      0.0
    ],
    [
      1.0,
      0.0
    ],
    [
      0.7701149425287356,
      0.22988505747126436
    ],
    [
      0.9134615384615384,
      0.08653846153846154
    ],
    [
      0.9432989690721649,
      0.05670103092783505
    ],
    [
      0.65,
      0.35
    ],
    [
      1.0,
      0.0
    ],
    [
      0.2222222222222222,
      0.7777777777777778
    ],
    [
      0.9770114942528736,
      0.022988505747126436
    ],
    [
      1.0,
      0.0
    ],
    [
      0.8666666666666667,
      0.13333333333333333
    ],
    [
      0.5,
      0.5
    ],
    [
      0.9583333333333334,
      0.041666666666666664
    ],
    [
      0.5,
      0.5
    ],
    [
      0.0,
      1.0
    ],
    [
      1.0,
      0.0
    ],
    [
      0.20754716981132076,
      0.7924528301886793
    ],
    [
      0.10638297872340426,
      0.8936170212765957
    ],
    [
      0.38461538461538464,
      0.6153846153846154
    ],
    [
      0.8,
      0.2
    ],
    [
      0.125,
      0.875
    ],
    [
      0.0,
      1.0
    ],
    [
      1.0,
      0.0
    ],
    [
      0.13333333333333333,
      0.8666666666666667
    ],
    [
      0.09411764705882353,
      0.9058823529411765
    ],
    [
      0.4117647058823529,
      0.5882352941176471
    ],
    [
      0.0,
      1.0
    ],
    [
      0.7777777777777778,
      0.2222222222222222
    ],
    [
      0.014705882352941176,
      0.9852941176470589
    ],
    [
      0.0,
      1.0
    ],
    [
      0.1,
      0.9
    ],
    [
      0.2,
      0.8
    ],
    [
      0.0,
      1.0
    ],
    [
      0.8,
      0.2
    ]
  ]
}